{
  "input_nodes": 5,
  "hidden_nodes": 8,
  "output_nodes": 2,
  "weights_ih": {
    "rows": 8,
    "cols": 5,
    "data": [
      [
        -3.0661963534802443,
        1.5291171700150439,
        0.9963790740888078,
        0.8198868018065766,
        0.03480133581001754
      ],
      [
        -0.1072083829519887,
        2.153596354871761,
        0.37856441460202495,
        -0.15541967418138847,
        0.05116299221127224
      ],
      [
        -1.4145857388274745,
        0.039706910844869596,
        0.1719225037048191,
        2.4384843021804645,
        2.14979677112564
      ],
      [
        1.1978852201817665,
        -1.245103904704443,
        -0.37084680538504783,
        -1.772615411386535,
        0.10621396690958268
      ],
      [
        -0.4532452439398136,
        0.40028641743210286,
        -0.04376037339159222,
        -0.7560953441087643,
        -0.8804478092500065
      ],
      [
        -0.41358742489991773,
        0.940859528258592,
        0.5715065015362197,
        -0.5308618374256145,
        0.5072618754102552
      ],
      [
        -1.60097843953368,
        -0.6390676539174027,
        -0.6412236815641343,
        0.24134838085790145,
        1.2602651913823106
      ],
      [
        1.4514949337074694,
        -1.3783348137634874,
        -1.1412877121077578,
        1.0039669041612012,
        0.16210651304039736
      ]
    ]
  },
  "weights_ho": {
    "rows": 2,
    "cols": 8,
    "data": [
      [
        -0.664669011821982,
        -0.2079012606922045,
        0.7061277915849478,
        -0.31378245891985,
        -0.9594210820316917,
        0.8947930655665042,
        -0.04814224466911199,
        0.4168616043329101
      ],
      [
        0.4983227613489807,
        -0.9008410072421391,
        0.8040198393777663,
        0.7405979331683086,
        -0.9115537694153925,
        0.21149809339823022,
        -1.1356464260505774,
        -1.0325115879230296
      ]
    ]
  },
  "bias_h": {
    "rows": 8,
    "cols": 1,
    "data": [
      [
        0.2756560961062673
      ],
      [
        2.0820496292202497
      ],
      [
        -1.1211760175919943
      ],
      [
        2.5686290441767685
      ],
      [
        -0.8439444462140386
      ],
      [
        0.13291604277372157
      ],
      [
        0.8875276562877448
      ],
      [
        -2.528384097620047
      ]
    ]
  },
  "bias_o": {
    "rows": 2,
    "cols": 1,
    "data": [
      [
        -0.47332230599249736
      ],
      [
        0.44662861885595206
      ]
    ]
  },
  "learning_rate": 0.3,
  "activation_function": {}
}
