{
  "input_nodes": 5,
  "hidden_nodes": 8,
  "output_nodes": 2,
  "weights_ih": {
    "rows": 8,
    "cols": 5,
    "data": [
      [
        -0.47516601126361335,
        -0.6889465561126079,
        1.8049281853262276,
        0.2872267954644565,
        0.6563976600159851
      ],
      [
        -0.7618297048534004,
        -1.0034217673987618,
        2.316008529531302,
        1.8233755040893698,
        -0.9408209585651888
      ],
      [
        0.9415572318568518,
        1.799326356702108,
        0.05454546299067975,
        -0.5412507561965523,
        -1.9244470330405705
      ],
      [
        0.5219633538814166,
        0.9636899008397688,
        -1.1882443928805977,
        3.852191792822758,
        1.028809097945084
      ],
      [
        -0.13337993855979594,
        -0.7359980646844766,
        -1.5416338115023385,
        -0.5481270616497658,
        -0.9906788248360572
      ],
      [
        -4.1124472149840186,
        3.3539406729628167,
        0.057030346624752426,
        3.752595489113862,
        -5.715552755400379
      ],
      [
        1.6229058042908375,
        -1.11085631264848,
        -0.836308456489609,
        0.5248234400001295,
        -0.6773333799825074
      ],
      [
        -4.058260652229292,
        4.335562489870461,
        0.0092325424472266,
        1.6506791445904316,
        -0.25469507285276527
      ]
    ]
  },
  "weights_ho": {
    "rows": 2,
    "cols": 8,
    "data": [
      [
        0.9263094562623739,
        -0.42759283366595713,
        1.0141852068505517,
        0.9751949414260344,
        -1.5356982341485375,
        0.4889396417515031,
        -1.7728498537014858,
        0.04919525455218057
      ],
      [
        0.4709993962020621,
        1.08870290157879,
        -2.603665381592712,
        2.0117871367055455,
        1.9917487399335951,
        0.3184123810367496,
        0.6094877888791231,
        2.9762854941008623
      ]
    ]
  },
  "bias_h": {
    "rows": 8,
    "cols": 1,
    "data": [
      [
        2.3580093363019565
      ],
      [
        0.7312666373303187
      ],
      [
        3.192511312655093
      ],
      [
        2.4507748208652567
      ],
      [
        0.7891614232161519
      ],
      [
        1.1857562540084785
      ],
      [
        0.22377569419197363
      ],
      [
        -2.370824550550606
      ]
    ]
  },
  "bias_o": {
    "rows": 2,
    "cols": 1,
    "data": [
      [
        -0.8727961067739576
      ],
      [
        -0.5860822678554212
      ]
    ]
  },
  "learning_rate": 0.3,
  "activation_function": {}
}
